digraph Tree {
node [shape=box] ;
0 [label="X[5] <= 0.144\ngini = 0.665\nsamples = 2923\nvalue = [906, 948, 1069]"] ;
1 [label="X[7] <= 8.5\ngini = 0.532\nsamples = 1210\nvalue = [186, 764, 260]"] ;
0 -> 1 [labeldistance=2.5, labelangle=45, headlabel="True"] ;
2 [label="X[5] <= 0.087\ngini = 0.359\nsamples = 801\nvalue = [56, 628, 117]"] ;
1 -> 2 ;
3 [label="X[2] <= 0.15\ngini = 0.265\nsamples = 542\nvalue = [19, 460, 63]"] ;
2 -> 3 ;
4 [label="gini = 0.262\nsamples = 541\nvalue = [18, 460, 63]"] ;
3 -> 4 ;
5 [label="gini = 0.0\nsamples = 1\nvalue = [1, 0, 0]"] ;
3 -> 5 ;
6 [label="X[4] <= 0.166\ngini = 0.515\nsamples = 259\nvalue = [37, 168, 54]"] ;
2 -> 6 ;
7 [label="gini = 0.555\nsamples = 16\nvalue = [8, 7, 1]"] ;
6 -> 7 ;
8 [label="gini = 0.499\nsamples = 243\nvalue = [29, 161, 53]"] ;
6 -> 8 ;
9 [label="X[7] <= 9.5\ngini = 0.666\nsamples = 409\nvalue = [130, 136, 143]"] ;
1 -> 9 ;
10 [label="X[0] <= 0.453\ngini = 0.624\nsamples = 154\nvalue = [30, 75, 49]"] ;
9 -> 10 ;
11 [label="gini = 0.636\nsamples = 61\nvalue = [15, 17, 29]"] ;
10 -> 11 ;
12 [label="gini = 0.539\nsamples = 93\nvalue = [15, 58, 20]"] ;
10 -> 12 ;
13 [label="X[4] <= 0.115\ngini = 0.653\nsamples = 255\nvalue = [100, 61, 94]"] ;
9 -> 13 ;
14 [label="gini = 0.519\nsamples = 39\nvalue = [5, 9, 25]"] ;
13 -> 14 ;
15 [label="gini = 0.647\nsamples = 216\nvalue = [95, 52, 69]"] ;
13 -> 15 ;
16 [label="X[3] <= 0.99\ngini = 0.589\nsamples = 1713\nvalue = [720, 184, 809]"] ;
0 -> 16 [labeldistance=2.5, labelangle=-45, headlabel="False"] ;
17 [label="X[5] <= 0.167\ngini = 0.64\nsamples = 677\nvalue = [222, 149, 306]"] ;
16 -> 17 ;
18 [label="X[7] <= 11.5\ngini = 0.65\nsamples = 222\nvalue = [57, 69, 96]"] ;
17 -> 18 ;
19 [label="gini = 0.64\nsamples = 165\nvalue = [33, 64, 68]"] ;
18 -> 19 ;
20 [label="gini = 0.574\nsamples = 57\nvalue = [24, 5, 28]"] ;
18 -> 20 ;
21 [label="X[3] <= 0.784\ngini = 0.625\nsamples = 455\nvalue = [165, 80, 210]"] ;
17 -> 21 ;
22 [label="gini = 0.64\nsamples = 86\nvalue = [39, 19, 28]"] ;
21 -> 22 ;
23 [label="gini = 0.613\nsamples = 369\nvalue = [126, 61, 182]"] ;
21 -> 23 ;
24 [label="X[4] <= 0.873\ngini = 0.532\nsamples = 1036\nvalue = [498, 35, 503]"] ;
16 -> 24 ;
25 [label="X[5] <= 0.315\ngini = 0.534\nsamples = 977\nvalue = [483, 35, 459]"] ;
24 -> 25 ;
26 [label="gini = 0.541\nsamples = 709\nvalue = [320, 32, 357]"] ;
25 -> 26 ;
27 [label="gini = 0.485\nsamples = 268\nvalue = [163, 3, 102]"] ;
25 -> 27 ;
28 [label="X[1] <= 0.623\ngini = 0.379\nsamples = 59\nvalue = [15, 0, 44]"] ;
24 -> 28 ;
29 [label="gini = 0.352\nsamples = 57\nvalue = [13, 0, 44]"] ;
28 -> 29 ;
30 [label="gini = 0.0\nsamples = 2\nvalue = [2, 0, 0]"] ;
28 -> 30 ;
}